<GAP_2013_5_30_60_14_20_28_943>
<Potential label="GAP_2013_5_30_60_14_20_28_943" init_args="IP GAP"/>
<GAP_params label="GAP_2013_5_30_60_14_20_28_943" svn_version="11610">
  <GAP_data do_core="F" e0="-9.19483512529700064"/>
  <gpSparse label="GAP_2013_5_30_60_14_20_28_943" n_coordinate="1">
    <gpCoordinates label="GAP_2013_5_30_60_14_20_28_9431" dimensions="1576" signal_variance="1.00000000000000000" signal_mean="0.00000000000000000" sparsified="T" n_permutations="1" covariance_type="2" n_sparseX="100" sparseX_filename="gp.xml.sparseX.GAP_2013_5_30_60_14_20_28_9431">
      <theta>  0.40000000000000000E+01 </theta>
      <descriptor>soap l_max=14 n_max=14 atom_sigma=0.5 zeta=4 cutoff=5.0 cutoff_transition_width=1.0 delta=1.0 f0=0.0 covariance_type=dot_product sparse_method=kmeans n_sparseX=100</descriptor>
      <permutation i="1">1  </permutation>
      <sparseX i="1" alpha="65.26379993425908310" sparseCutoff="1.00000000000000000"/>
      <sparseX i="2" alpha="-68.10615573030179348" sparseCutoff="1.00000000000000000"/>
      <sparseX i="3" alpha="29.79792500462039939" sparseCutoff="1.00000000000000000"/>
      <sparseX i="4" alpha="-69.20000063321749906" sparseCutoff="1.00000000000000000"/>
      <sparseX i="5" alpha="34.70560465153286600" sparseCutoff="1.00000000000000000"/>
      <sparseX i="6" alpha="14.73902282206444347" sparseCutoff="1.00000000000000000"/>
      <sparseX i="7" alpha="145.98088827553172564" sparseCutoff="1.00000000000000000"/>
      <sparseX i="8" alpha="-214.48560863169950608" sparseCutoff="1.00000000000000000"/>
      <sparseX i="9" alpha="188.76203414507153866" sparseCutoff="1.00000000000000000"/>
      <sparseX i="10" alpha="328.30693311531888412" sparseCutoff="1.00000000000000000"/>
      <sparseX i="11" alpha="-45.07262758953340409" sparseCutoff="1.00000000000000000"/>
      <sparseX i="12" alpha="262.61453539816164948" sparseCutoff="1.00000000000000000"/>
      <sparseX i="13" alpha="33.71275025741536524" sparseCutoff="1.00000000000000000"/>
      <sparseX i="14" alpha="11.22612656130687192" sparseCutoff="1.00000000000000000"/>
      <sparseX i="15" alpha="-151.90457764740870061" sparseCutoff="1.00000000000000000"/>
      <sparseX i="16" alpha="-322.83249470027510597" sparseCutoff="1.00000000000000000"/>
      <sparseX i="17" alpha="-331.31794678743472105" sparseCutoff="1.00000000000000000"/>
      <sparseX i="18" alpha="-32.27242232862548832" sparseCutoff="1.00000000000000000"/>
      <sparseX i="19" alpha="-189.98876444330406343" sparseCutoff="1.00000000000000000"/>
      <sparseX i="20" alpha="-51.45432577054576484" sparseCutoff="1.00000000000000000"/>
      <sparseX i="21" alpha="-312.48248955523706627" sparseCutoff="1.00000000000000000"/>
      <sparseX i="22" alpha="-310.06137399899478169" sparseCutoff="1.00000000000000000"/>
      <sparseX i="23" alpha="-125.74820546688276579" sparseCutoff="1.00000000000000000"/>
      <sparseX i="24" alpha="-133.14664218937750206" sparseCutoff="1.00000000000000000"/>
      <sparseX i="25" alpha="254.52945034173043837" sparseCutoff="1.00000000000000000"/>
      <sparseX i="26" alpha="-180.78595624249396678" sparseCutoff="1.00000000000000000"/>
      <sparseX i="27" alpha="-240.01397361445319234" sparseCutoff="1.00000000000000000"/>
      <sparseX i="28" alpha="-232.57681730239985995" sparseCutoff="1.00000000000000000"/>
      <sparseX i="29" alpha="-188.93211675918988135" sparseCutoff="1.00000000000000000"/>
      <sparseX i="30" alpha="-328.49096171895257612" sparseCutoff="1.00000000000000000"/>
      <sparseX i="31" alpha="-3.92264322378805108" sparseCutoff="1.00000000000000000"/>
      <sparseX i="32" alpha="-57.03806049019905799" sparseCutoff="1.00000000000000000"/>
      <sparseX i="33" alpha="-197.10597940928562366" sparseCutoff="1.00000000000000000"/>
      <sparseX i="34" alpha="-213.61988089062185736" sparseCutoff="1.00000000000000000"/>
      <sparseX i="35" alpha="-140.91014116967943437" sparseCutoff="1.00000000000000000"/>
      <sparseX i="36" alpha="-116.01749045373561842" sparseCutoff="1.00000000000000000"/>
      <sparseX i="37" alpha="-99.98124633019918406" sparseCutoff="1.00000000000000000"/>
      <sparseX i="38" alpha="-319.73530293084553477" sparseCutoff="1.00000000000000000"/>
      <sparseX i="39" alpha="-23.99121832196087922" sparseCutoff="1.00000000000000000"/>
      <sparseX i="40" alpha="-159.54690639218952697" sparseCutoff="1.00000000000000000"/>
      <sparseX i="41" alpha="-471.66640452792773885" sparseCutoff="1.00000000000000000"/>
      <sparseX i="42" alpha="-2211.37346143270815446" sparseCutoff="1.00000000000000000"/>
      <sparseX i="43" alpha="631.12310821544178907" sparseCutoff="1.00000000000000000"/>
      <sparseX i="44" alpha="-145.00080119692779590" sparseCutoff="1.00000000000000000"/>
      <sparseX i="45" alpha="249.51130659671196099" sparseCutoff="1.00000000000000000"/>
      <sparseX i="46" alpha="-200.86462281811793673" sparseCutoff="1.00000000000000000"/>
      <sparseX i="47" alpha="-85.19374760072962260" sparseCutoff="1.00000000000000000"/>
      <sparseX i="48" alpha="-88.10062098178126178" sparseCutoff="1.00000000000000000"/>
      <sparseX i="49" alpha="397.83673966023235380" sparseCutoff="1.00000000000000000"/>
      <sparseX i="50" alpha="241.23006826522262713" sparseCutoff="1.00000000000000000"/>
      <sparseX i="51" alpha="533.35509189242441153" sparseCutoff="1.00000000000000000"/>
      <sparseX i="52" alpha="731.71250810978233403" sparseCutoff="1.00000000000000000"/>
      <sparseX i="53" alpha="796.36530096001149559" sparseCutoff="1.00000000000000000"/>
      <sparseX i="54" alpha="303.75427399352145130" sparseCutoff="1.00000000000000000"/>
      <sparseX i="55" alpha="-89.34347724755534159" sparseCutoff="1.00000000000000000"/>
      <sparseX i="56" alpha="-635.06950653957767372" sparseCutoff="1.00000000000000000"/>
      <sparseX i="57" alpha="-359.20143113561385917" sparseCutoff="1.00000000000000000"/>
      <sparseX i="58" alpha="-304.08756252895580019" sparseCutoff="1.00000000000000000"/>
      <sparseX i="59" alpha="-273.53035880759773590" sparseCutoff="1.00000000000000000"/>
      <sparseX i="60" alpha="-259.86061614050657909" sparseCutoff="1.00000000000000000"/>
      <sparseX i="61" alpha="-343.71636916412012397" sparseCutoff="1.00000000000000000"/>
      <sparseX i="62" alpha="517.33292988318771677" sparseCutoff="1.00000000000000000"/>
      <sparseX i="63" alpha="-300.20392313617907121" sparseCutoff="1.00000000000000000"/>
      <sparseX i="64" alpha="-36.15639299741329893" sparseCutoff="1.00000000000000000"/>
      <sparseX i="65" alpha="239.57781640538667034" sparseCutoff="1.00000000000000000"/>
      <sparseX i="66" alpha="70.51893143230120131" sparseCutoff="1.00000000000000000"/>
      <sparseX i="67" alpha="210.63914002295013006" sparseCutoff="1.00000000000000000"/>
      <sparseX i="68" alpha="113.67836796069396144" sparseCutoff="1.00000000000000000"/>
      <sparseX i="69" alpha="-111.92064433857494521" sparseCutoff="1.00000000000000000"/>
      <sparseX i="70" alpha="-290.71160850550450050" sparseCutoff="1.00000000000000000"/>
      <sparseX i="71" alpha="-530.59879373802482405" sparseCutoff="1.00000000000000000"/>
      <sparseX i="72" alpha="-726.75848544323287115" sparseCutoff="1.00000000000000000"/>
      <sparseX i="73" alpha="-719.39381889268145187" sparseCutoff="1.00000000000000000"/>
      <sparseX i="74" alpha="-47.34856901761477133" sparseCutoff="1.00000000000000000"/>
      <sparseX i="75" alpha="-637.24744199274596212" sparseCutoff="1.00000000000000000"/>
      <sparseX i="76" alpha="-388.67437392604762181" sparseCutoff="1.00000000000000000"/>
      <sparseX i="77" alpha="311.12613684926481028" sparseCutoff="1.00000000000000000"/>
      <sparseX i="78" alpha="200.47970766249866870" sparseCutoff="1.00000000000000000"/>
      <sparseX i="79" alpha="198.05225351390151900" sparseCutoff="1.00000000000000000"/>
      <sparseX i="80" alpha="-413.44824095658469787" sparseCutoff="1.00000000000000000"/>
      <sparseX i="81" alpha="-391.07321954151808541" sparseCutoff="1.00000000000000000"/>
      <sparseX i="82" alpha="-525.93815824174112095" sparseCutoff="1.00000000000000000"/>
      <sparseX i="83" alpha="242.70079110437475833" sparseCutoff="1.00000000000000000"/>
      <sparseX i="84" alpha="1077.97349479399440497" sparseCutoff="1.00000000000000000"/>
      <sparseX i="85" alpha="936.17262576597704538" sparseCutoff="1.00000000000000000"/>
      <sparseX i="86" alpha="240.86049415737548429" sparseCutoff="1.00000000000000000"/>
      <sparseX i="87" alpha="152.78097085229072150" sparseCutoff="1.00000000000000000"/>
      <sparseX i="88" alpha="60.26900138883726044" sparseCutoff="1.00000000000000000"/>
      <sparseX i="89" alpha="45.97381262976676908" sparseCutoff="1.00000000000000000"/>
      <sparseX i="90" alpha="17.40119056651742468" sparseCutoff="1.00000000000000000"/>
      <sparseX i="91" alpha="25.48636500685580941" sparseCutoff="1.00000000000000000"/>
      <sparseX i="92" alpha="-49.32987233746940348" sparseCutoff="1.00000000000000000"/>
      <sparseX i="93" alpha="24.24508964596141070" sparseCutoff="1.00000000000000000"/>
      <sparseX i="94" alpha="24.43613086751934205" sparseCutoff="1.00000000000000000"/>
      <sparseX i="95" alpha="-20.23532082155766787" sparseCutoff="1.00000000000000000"/>
      <sparseX i="96" alpha="-55.45940094552515376" sparseCutoff="1.00000000000000000"/>
      <sparseX i="97" alpha="-84.90455411131105734" sparseCutoff="1.00000000000000000"/>
      <sparseX i="98" alpha="-175.82239181095036429" sparseCutoff="1.00000000000000000"/>
      <sparseX i="99" alpha="-32.35949098045956163" sparseCutoff="1.00000000000000000"/>
      <sparseX i="100" alpha="-31.39563016941585261" sparseCutoff="1.00000000000000000"/>
    </gpCoordinates>
  </gpSparse>
  <command_line><![CDATA[ at_file=teach.xyz descriptor_str={soap l_max=14 n_max=14 atom_sigma=0.5 zeta=4 cutoff=5.0 cutoff_transition_width=1.0 delta=1.0 f0=0.0 covariance_type=dot_product sparse_method=kmeans n_sparseX=100} do_sparse default_sigma={0.001 0.1 0.1} config_type_sigma={slice_sample:0.0001:0.01:0.01} e0=-9.19483512529700 sparse_jitter=1.0e-6 energy_parameter_name=energy force_parameter_name=force virial_parameter_name=virial config_type_parameter_name=config_type gp_file=gp.xml sparseX_separate_file=T rnd_seed=666]]></command_line>
  <XYZ_data>
    <![CDATA[1]]>
    <![CDATA[config_type=slice_sample energy=-1.119483512529700E+01 virial="-5.703978934983333E-03 -0.000000000000000E+00 -0.000000000000000E+00 -0.000000000000000E+00 -5.703978934983293E-03 -0.000000000000000E+00 -0.000000000000000E+00 -0.000000000000000E+00 -5.703978934983333E-03" Lattice="3.180500495732849E+00  0.000000000000000E+00  0.000000000000000E+00  0.000000000000000E+00  3.180500495732849E+00  0.000000000000000E+00  1.590250242866424E+00  1.590250242866424E+00  1.590250242866424E+00" Properties=species:S:1:pos:R:3:force:R:3:Z:I:1]]>
    <![CDATA[W          0.000000000000000E+00 0.000000000000000E+00 0.000000000000000E+00 0.000000000000000E+00 0.000000000000000E+00 0.000000000000000E+00      74]]>
    <![CDATA[1]]>
    <![CDATA[config_type=slice_sample energy=-1.112699059894089E+01 virial="-2.173033363987340E+00 -0.000000000000000E+00  5.815487283233488E-01 -0.000000000000000E+00 -8.450069889252690E-01 -0.000000000000000E+00  5.815487283233488E-01 -0.000000000000000E+00 -8.762406533705639E-01" Lattice="3.333535977556725E+00  0.000000000000000E+00  0.000000000000000E+00  0.000000000000000E+00  3.180500495732849E+00  0.000000000000000E+00  1.590250242866424E+00  1.590250242866424E+00  1.590250242866424E+00" Properties=species:S:1:pos:R:3:force:R:3:Z:I:1]]>
    <![CDATA[W          0.000000000000000E+00 0.000000000000000E+00 0.000000000000000E+00 0.000000000000000E+00 0.000000000000000E+00 0.000000000000000E+00      74]]>
    <![CDATA[1]]>
    <![CDATA[config_type=slice_sample energy=-1.113328168095495E+01 virial="-2.191716281389271E+00  2.010072565263313E-01  3.761463865110470E-01  2.010072565263313E-01 -8.730663227844153E-01  2.824513167776501E-02  3.761463865110470E-01  2.824513167776501E-02 -8.827530442147667E-01" Lattice="3.333535977556725E+00  0.000000000000000E+00  0.000000000000000E+00 -5.319854411024297E-02  3.180500495732849E+00  0.000000000000000E+00  1.590250242866424E+00  1.590250242866424E+00  1.590250242866424E+00" Properties=species:S:1:pos:R:3:force:R:3:Z:I:1]]>
    <![CDATA[W          0.000000000000000E+00 0.000000000000000E+00 0.000000000000000E+00 0.000000000000000E+00 0.000000000000000E+00 0.000000000000000E+00      74]]>
    <![CDATA[1]]>
    <![CDATA[config_type=slice_sample energy=-1.113962558883100E+01 virial="-1.859270571107249E+00  1.799194702350527E-01  3.865594211471397E-01  1.799194702350527E-01 -1.941859305905259E-02 -1.797554741268757E-01  3.865594211471397E-01 -1.797554741268757E-01 -5.750466013441466E-01" Lattice="3.333535977556725E+00  0.000000000000000E+00  0.000000000000000E+00 -5.319854411024297E-02  3.126899171591486E+00  0.000000000000000E+00  1.590250242866424E+00  1.590250242866424E+00  1.590250242866424E+00" Properties=species:S:1:pos:R:3:force:R:3:Z:I:1]]>
    <![CDATA[W          0.000000000000000E+00 0.000000000000000E+00 0.000000000000000E+00 0.000000000000000E+00 0.000000000000000E+00 0.000000000000000E+00      74]]>
    <![CDATA[1]]>
    <![CDATA[config_type=slice_sample energy=-1.114200270026186E+01 virial="-1.869040802976469E+00  2.148820759446624E-01 -2.984516930620981E-01  2.148820759446624E-01 -2.879040569195766E-02 -2.266840341429049E-01 -2.984516930620981E-01 -2.266840341429049E-01 -5.798752000629104E-01" Lattice="3.333535977556725E+00  0.000000000000000E+00  0.000000000000000E+00 -5.319854411024297E-02  3.126899171591486E+00  0.000000000000000E+00  1.675421929446986E+00  1.590250242866424E+00  1.590250242866424E+00" Properties=species:S:1:pos:R:3:force:R:3:Z:I:1]]>
    <![CDATA[W          0.000000000000000E+00 0.000000000000000E+00 0.000000000000000E+00 0.000000000000000E+00 0.000000000000000E+00 0.000000000000000E+00      74]]>
    <![CDATA[1]]>
    <![CDATA[config_type=slice_sample energy=-1.113884738305092E+01 virial="-1.854274039660899E+00  2.256481256441912E-01 -3.097246066160171E-01  2.256481256441912E-01 -2.793344765799691E-02 -3.583673064138136E-01 -3.097246066160171E-01 -3.583673064138136E-01 -5.709626213411328E-01" Lattice="3.333535977556725E+00  0.000000000000000E+00  0.000000000000000E+00 -5.319854411024297E-02  3.126899171591486E+00  0.000000000000000E+00  1.675421929446986E+00  1.607404264191783E+00  1.590250242866424E+00" Properties=species:S:1:pos:R:3:force:R:3:Z:I:1]]>
    <![CDATA[W          0.000000000000000E+00 0.000000000000000E+00 0.000000000000000E+00 0.000000000000000E+00 0.000000000000000E+00 0.000000000000000E+00      74]]>
    <![CDATA[1]]>
    <![CDATA[config_type=slice_sample energy=-1.112373231810193E+01 virial="-2.154275100131541E+00  2.101001583582298E-01 -3.028119147886461E-01  2.101001583582298E-01 -3.134482731745626E-01 -3.463452300083659E-01 -3.028119147886461E-01 -3.463452300083659E-01 -1.330202922712749E+00" Lattice="3.333535977556725E+00  0.000000000000000E+00  0.000000000000000E+00 -5.319854411024297E-02  3.126899171591486E+00  0.000000000000000E+00  1.675421929446986E+00  1.607404264191783E+00  1.615669744830394E+00" Properties=species:S:1:pos:R:3:force:R:3:Z:I:1]]>
    <![CDATA[W          0.000000000000000E+00 0.000000000000000E+00 0.000000000000000E+00 0.000000000000000E+00 0.000000000000000E+00 0.000000000000000E+00      74]]>
    <![CDATA[1]]>
    <![CDATA[config_type=slice_sample energy=-1.115052935638892E+01 virial="-5.938924707493553E-01  2.813844686082859E-01 -8.543054710078533E-01  2.813844686082859E-01  4.069258506553183E-01 -4.461223010580641E-01 -8.543054710078533E-01 -4.461223010580641E-01 -6.181445970020973E-01" Lattice="3.222213858955720E+00  0.000000000000000E+00  0.000000000000000E+00 -5.319854411024297E-02  3.126899171591486E+00  0.000000000000000E+00  1.675421929446986E+00  1.607404264191783E+00  1.615669744830394E+00" Properties=species:S:1:pos:R:3:force:R:3:Z:I:1]]>
    <![CDATA[W          0.000000000000000E+00 0.000000000000000E+00 0.000000000000000E+00 0.000000000000000E+00 0.000000000000000E+00 0.000000000000000E+00      74]]>
    <![CDATA[1]]>
    <![CDATA[config_type=slice_sample energy=-1.104762234557484E+01 virial="-4.935840929123051E-01  1.055744583678117E+00 -1.720264040514927E+00  1.055744583678117E+00  6.608312708544548E-01 -8.451818003831882E-01 -1.720264040514927E+00 -8.451818003831882E-01 -2.242820950788863E-01" Lattice="3.222213858955720E+00  0.000000000000000E+00  0.000000000000000E+00 -2.188141169060864E-01  3.126899171591486E+00  0.000000000000000E+00  1.675421929446986E+00  1.607404264191783E+00  1.615669744830394E+00" Properties=species:S:1:pos:R:3:force:R:3:Z:I:1]]>
    <![CDATA[W          0.000000000000000E+00 0.000000000000000E+00 0.000000000000000E+00 0.000000000000000E+00 0.000000000000000E+00 0.000000000000000E+00      74]]>
    <![CDATA[1]]>
    <![CDATA[config_type=slice_sample energy=-1.106221787402501E+01 virial="-7.947710899366087E-01  9.821933723542970E-01 -1.586883273120648E+00  9.821933723542970E-01 -6.359375386974299E-02 -5.967335724516517E-01 -1.586883273120648E+00 -5.967335724516517E-01 -5.767009960011651E-01" Lattice="3.222213858955720E+00  0.000000000000000E+00  0.000000000000000E+00 -2.188141169060864E-01  3.172120055085356E+00  0.000000000000000E+00  1.675421929446986E+00  1.607404264191783E+00  1.615669744830394E+00" Properties=species:S:1:pos:R:3:force:R:3:Z:I:1]]>
    <![CDATA[W          0.000000000000000E+00 0.000000000000000E+00 0.000000000000000E+00 0.000000000000000E+00 0.000000000000000E+00 0.000000000000000E+00      74]]>
    <![CDATA[1]]>
    <![CDATA[config_type=slice_sample energy=-1.114637826887997E+01 virial="-8.662187031190854E-01  9.234032872798066E-01 -2.719928808006538E-01  9.234032872798066E-01 -3.510605170394885E-01 -2.470883315795730E-01 -2.719928808006538E-01 -2.470883315795730E-01 -8.529169710220745E-01" Lattice="3.222213858955720E+00  0.000000000000000E+00  0.000000000000000E+00 -2.188141169060864E-01  3.172120055085356E+00  0.000000000000000E+00  1.527772918039281E+00  1.607404264191783E+00  1.615669744830394E+00" Properties=species:S:1:pos:R:3:force:R:3:Z:I:1]]>
    <![CDATA[W          0.000000000000000E+00 0.000000000000000E+00 0.000000000000000E+00 0.000000000000000E+00 0.000000000000000E+00 0.000000000000000E+00      74]]>
    <![CDATA[1]]>
    <![CDATA[config_type=slice_sample energy=-1.111922114458889E+01 virial="-7.488673563890442E-01  8.955012732962562E-01  1.722820724156627E-02  8.955012732962562E-01 -3.418767613557435E-01  9.219126406727349E-01  1.722820724156627E-02  9.219126406727349E-01 -7.674271730522294E-01" Lattice="3.222213858955720E+00  0.000000000000000E+00  0.000000000000000E+00 -2.188141169060864E-01  3.172120055085356E+00  0.000000000000000E+00  1.527772918039281E+00  1.476191594053988E+00  1.615669744830394E+00" Properties=species:S:1:pos:R:3:force:R:3:Z:I:1]]>
    <![CDATA[W          0.000000000000000E+00 0.000000000000000E+00 0.000000000000000E+00 0.000000000000000E+00 0.000000000000000E+00 0.000000000000000E+00      74]]>
    <![CDATA[1]]>
    <![CDATA[config_type=slice_sample energy=-1.112541895879895E+01 virial="-3.917602692936686E-01  9.573303278321921E-01  1.943729171273708E-02  9.573303278321921E-01  2.377271506043544E-02  9.517271767356473E-01  1.943729171273708E-02  9.517271767356473E-01  9.451377925277962E-02" Lattice="3.222213858955720E+00  0.000000000000000E+00  0.000000000000000E+00 -2.188141169060864E-01  3.172120055085356E+00  0.000000000000000E+00  1.527772918039281E+00  1.476191594053988E+00  1.587133842625644E+00" Properties=species:S:1:pos:R:3:force:R:3:Z:I:1]]>
    <![CDATA[W          0.000000000000000E+00 0.000000000000000E+00 0.000000000000000E+00 0.000000000000000E+00 0.000000000000000E+00 0.000000000000000E+00      74]]>
    <![CDATA[1]]>
    <![CDATA[config_type=slice_sample energy=-1.112589234160691E+01 virial="4.962496799586934E-02  9.582892459146432E-01 -1.210638314303898E-01  9.582892459146432E-01  2.167750010064018E-01  9.542744553308348E-01 -1.210638314303898E-01  9.542744553308348E-01  2.802119680236599E-01" Lattice="3.193533506739810E+00  0.000000000000000E+00  0.000000000000000E+00 -2.188141169060864E-01  3.172120055085356E+00  0.000000000000000E+00  1.527772918039281E+00  1.476191594053988E+00  1.587133842625644E+00" Properties=species:S:1:pos:R:3:force:R:3:Z:I:1]]>
    <![CDATA[W          0.000000000000000E+00 0.000000000000000E+00 0.000000000000000E+00 0.000000000000000E+00 0.000000000000000E+00 0.000000000000000E+00      74]]>
    <![CDATA[1]]>
    <![CDATA[config_type=slice_sample energy=-1.109333503254084E+01 virial="8.215363599489196E-02 -4.775322154786530E-01  1.239021820256361E+00 -4.775322154786530E-01  3.522389992800560E-01  8.416520602058004E-01  1.239021820256361E+00  8.416520602058004E-01  3.634095803952486E-01" Lattice="3.193533506739810E+00  0.000000000000000E+00  0.000000000000000E+00  1.571124721388742E-01  3.172120055085356E+00  0.000000000000000E+00  1.527772918039281E+00  1.476191594053988E+00  1.587133842625644E+00" Properties=species:S:1:pos:R:3:force:R:3:Z:I:1]]>
    <![CDATA[W          0.000000000000000E+00 0.000000000000000E+00 0.000000000000000E+00 0.000000000000000E+00 0.000000000000000E+00 0.000000000000000E+00      74]]>
    <![CDATA[1]]>
    <![CDATA[config_type=slice_sample energy=-1.108564439311499E+01 virial="-9.506577157025459E-02 -4.288045514146534E-01  1.182553972342529E+00 -4.288045514146534E-01 -1.466454855168397E-01  9.828138977064667E-01  1.182553972342529E+00  9.828138977064667E-01  1.644481006685996E-01" Lattice="3.193533506739810E+00  0.000000000000000E+00  0.000000000000000E+00  1.571124721388742E-01  3.204934867620705E+00  0.000000000000000E+00  1.527772918039281E+00  1.476191594053988E+00  1.587133842625644E+00" Properties=species:S:1:pos:R:3:force:R:3:Z:I:1]]>
    <![CDATA[W          0.000000000000000E+00 0.000000000000000E+00 0.000000000000000E+00 0.000000000000000E+00 0.000000000000000E+00 0.000000000000000E+00      74]]>
    <![CDATA[1]]>
    <![CDATA[config_type=slice_sample energy=-1.108628275579099E+01 virial="-9.549296537529217E-02 -4.306821621924027E-01  1.174225160962869E+00 -4.306821621924027E-01 -1.490317842537258E-01  9.833691575821603E-01  1.174225160962869E+00  9.833691575821603E-01  1.624962379022805E-01" Lattice="3.193533506739810E+00  0.000000000000000E+00  0.000000000000000E+00  1.571124721388742E-01  3.204934867620705E+00  0.000000000000000E+00  1.528632698105709E+00  1.476191594053988E+00  1.587133842625644E+00" Properties=species:S:1:pos:R:3:force:R:3:Z:I:1]]>
    <![CDATA[W          0.000000000000000E+00 0.000000000000000E+00 0.000000000000000E+00 0.000000000000000E+00 0.000000000000000E+00 0.000000000000000E+00      74]]>
    <![CDATA[1]]>
    <![CDATA[config_type=slice_sample energy=-1.110827390286090E+01 virial="-2.533534240535871E-01 -7.792174932123558E-01  1.371877188034924E+00 -7.792174932123558E-01 -1.364119471589822E-01 -5.272773974572127E-01  1.371877188034924E+00 -5.272773974572127E-01  1.071430978911002E-01" Lattice="3.193533506739810E+00  0.000000000000000E+00  0.000000000000000E+00  1.571124721388742E-01  3.204934867620705E+00  0.000000000000000E+00  1.528632698105709E+00  1.631588666060327E+00  1.587133842625644E+00" Properties=species:S:1:pos:R:3:force:R:3:Z:I:1]]>
    <![CDATA[W          0.000000000000000E+00 0.000000000000000E+00 0.000000000000000E+00 0.000000000000000E+00 0.000000000000000E+00 0.000000000000000E+00      74]]>
    <![CDATA[1]]>
    <![CDATA[config_type=slice_sample energy=-1.110189410641692E+01 virial="4.365517811874025E-02 -8.186534688591283E-01  1.400717991682721E+00 -8.186534688591283E-01  1.631362895271264E-01 -5.442396060808344E-01  1.400717991682721E+00 -5.442396060808344E-01  8.102456341535794E-01" Lattice="3.193533506739810E+00  0.000000000000000E+00  0.000000000000000E+00  1.571124721388742E-01  3.204934867620705E+00  0.000000000000000E+00  1.528632698105709E+00  1.631588666060327E+00  1.565167560928478E+00" Properties=species:S:1:pos:R:3:force:R:3:Z:I:1]]>
    <![CDATA[W          0.000000000000000E+00 0.000000000000000E+00 0.000000000000000E+00 0.000000000000000E+00 0.000000000000000E+00 0.000000000000000E+00      74]]>
    <![CDATA[1]]>
    <![CDATA[config_type=slice_sample energy=-1.110483692510797E+01 virial="1.945914851501239E+00 -8.505224490161425E-01  9.392676259368991E-01 -8.505224490161425E-01  8.107088968480389E-01 -4.732945607129423E-01  9.392676259368991E-01 -4.732945607129423E-01  1.518142467837836E+00" Lattice="3.079166517903551E+00  0.000000000000000E+00  0.000000000000000E+00  1.571124721388742E-01  3.204934867620705E+00  0.000000000000000E+00  1.528632698105709E+00  1.631588666060327E+00  1.565167560928478E+00" Properties=species:S:1:pos:R:3:force:R:3:Z:I:1]]>
    <![CDATA[W          0.000000000000000E+00 0.000000000000000E+00 0.000000000000000E+00 0.000000000000000E+00 0.000000000000000E+00 0.000000000000000E+00      74]]>
    <![CDATA[1]]>
    <![CDATA[config_type=slice_sample energy=-1.115251511577389E+01 virial="1.961858136897199E+00  7.354792947487701E-02  3.348238158813019E-02  7.354792947487701E-02  6.203153047430051E-01 -2.944296667512261E-01  3.348238158813019E-02 -2.944296667512261E-01  1.374285824832017E+00" Lattice="3.079166517903551E+00  0.000000000000000E+00  0.000000000000000E+00 -1.458484112685867E-02  3.204934867620705E+00  0.000000000000000E+00  1.528632698105709E+00  1.631588666060327E+00  1.565167560928478E+00" Properties=species:S:1:pos:R:3:force:R:3:Z:I:1]]>
    <![CDATA[W          0.000000000000000E+00 0.000000000000000E+00 0.000000000000000E+00 0.000000000000000E+00 0.000000000000000E+00 0.000000000000000E+00      74]]>
    <![CDATA[1]]>
    <![CDATA[config_type=slice_sample energy=-1.115148183846395E+01 virial="1.986866622294775E+00  7.383417940174185E-02  3.343383409135138E-02  7.383417940174185E-02  6.768336821118621E-01 -3.129882576204656E-01  3.343383409135138E-02 -3.129882576204656E-01  1.399035101990646E+00" Lattice="3.079166517903551E+00  0.000000000000000E+00  0.000000000000000E+00 -1.458484112685867E-02  3.201510337356118E+00  0.000000000000000E+00  1.528632698105709E+00  1.631588666060327E+00  1.565167560928478E+00" Properties=species:S:1:pos:R:3:force:R:3:Z:I:1]]>
    <![CDATA[W          0.000000000000000E+00 0.000000000000000E+00 0.000000000000000E+00 0.000000000000000E+00 0.000000000000000E+00 0.000000000000000E+00      74]]>
    <![CDATA[1]]>
    <![CDATA[config_type=slice_sample energy=-1.113126530977297E+01 virial="1.986033306022474E+00  3.038761917703035E-02  7.915843765514118E-01  3.038761917703035E-02  7.631072040499114E-01 -3.076698361720663E-01  7.915843765514118E-01 -3.076698361720663E-01  1.450649172184735E+00" Lattice="3.079166517903551E+00  0.000000000000000E+00  0.000000000000000E+00 -1.458484112685867E-02  3.201510337356118E+00  0.000000000000000E+00  1.451639792157059E+00  1.631588666060327E+00  1.565167560928478E+00" Properties=species:S:1:pos:R:3:force:R:3:Z:I:1]]>
    <![CDATA[W          0.000000000000000E+00 0.000000000000000E+00 0.000000000000000E+00 0.000000000000000E+00 0.000000000000000E+00 0.000000000000000E+00      74]]>
    <![CDATA[1]]>
    <![CDATA[config_type=slice_sample energy=-1.113260949393589E+01 virial="1.981770208363933E+00  1.016269965120741E-01  7.948690271173451E-01  1.016269965120741E-01  7.595405353489765E-01  2.200125514138341E-01  7.948690271173451E-01  2.200125514138341E-01  1.451048921591505E+00" Lattice="3.079166517903551E+00  0.000000000000000E+00  0.000000000000000E+00 -1.458484112685867E-02  3.201510337356118E+00  0.000000000000000E+00  1.451639792157059E+00  1.580894992143616E+00  1.565167560928478E+00" Properties=species:S:1:pos:R:3:force:R:3:Z:I:1]]>
    <![CDATA[W          0.000000000000000E+00 0.000000000000000E+00 0.000000000000000E+00 0.000000000000000E+00 0.000000000000000E+00 0.000000000000000E+00      74]]>
    <![CDATA[1]]>
    <![CDATA[config_type=slice_sample energy=-1.110205517230088E+01 virial="2.345170655944429E+00  1.076859442589453E-01  8.131271369631379E-01  1.076859442589453E-01  1.139134576480056E+00  2.247946001774347E-01  8.131271369631379E-01  2.247946001774347E-01  2.367115725290063E+00" Lattice="3.079166517903551E+00  0.000000000000000E+00  0.000000000000000E+00 -1.458484112685867E-02  3.201510337356118E+00  0.000000000000000E+00  1.451639792157059E+00  1.580894992143616E+00  1.540126588993754E+00" Properties=species:S:1:pos:R:3:force:R:3:Z:I:1]]>
    <![CDATA[W          0.000000000000000E+00 0.000000000000000E+00 0.000000000000000E+00 0.000000000000000E+00 0.000000000000000E+00 0.000000000000000E+00      74]]>
    <![CDATA[1]]>
    <![CDATA[config_type=slice_sample energy=-1.111975961741086E+01 virial="9.216376622339746E-01  1.184248161030965E-01  1.154686638902765E+00  1.184248161030965E-01  6.560817903057773E-01  2.210630884632090E-01  1.154686638902765E+00  2.210630884632090E-01  1.819989395490404E+00" Lattice="3.159993904148462E+00  0.000000000000000E+00  0.000000000000000E+00 -1.458484112685867E-02  3.201510337356118E+00  0.000000000000000E+00  1.451639792157059E+00  1.580894992143616E+00  1.540126588993754E+00" Properties=species:S:1:pos:R:3:force:R:3:Z:I:1]]>
    <![CDATA[W          0.000000000000000E+00 0.000000000000000E+00 0.000000000000000E+00 0.000000000000000E+00 0.000000000000000E+00 0.000000000000000E+00      74]]>
    <![CDATA[1]]>
    <![CDATA[config_type=slice_sample energy=-1.112250202632390E+01 virial="2.546609552354611E+00 -0.000000000000000E+00 -7.031954710122216E-01 -0.000000000000000E+00  1.024898803782722E+00 -0.000000000000000E+00 -7.031954710122216E-01 -0.000000000000000E+00  1.016235623936848E+00" Lattice="3.038818724786186E+00  0.000000000000000E+00  0.000000000000000E+00  0.000000000000000E+00  3.180500495732849E+00  0.000000000000000E+00  1.590250242866424E+00  1.590250242866424E+00  1.590250242866424E+00" Properties=species:S:1:pos:R:3:force:R:3:Z:I:1]]>
    <![CDATA[W          0.000000000000000E+00 0.000000000000000E+00 0.000000000000000E+00 0.000000000000000E+00 0.000000000000000E+00 0.000000000000000E+00      74]]>
    <![CDATA[1]]>
    <![CDATA[config_type=slice_sample energy=-1.111694208738982E+01 virial="2.539943942373683E+00  1.072459766077699E-01 -8.130901154452287E-01  1.072459766077699E-01  1.047306471738378E+00 -2.282025179935971E-02 -8.130901154452287E-01 -2.282025179935971E-02  1.037916536541310E+00" Lattice="3.038818724786186E+00  0.000000000000000E+00  0.000000000000000E+00 -2.179885168422987E-02  3.180500495732849E+00  0.000000000000000E+00  1.590250242866424E+00  1.590250242866424E+00  1.590250242866424E+00" Properties=species:S:1:pos:R:3:force:R:3:Z:I:1]]>
    <![CDATA[W          0.000000000000000E+00 0.000000000000000E+00 0.000000000000000E+00 0.000000000000000E+00 0.000000000000000E+00 0.000000000000000E+00      74]]>
    <![CDATA[1]]>
    <![CDATA[config_type=slice_sample energy=-1.112416821542388E+01 virial="2.314306553783661E+00  8.340396391073863E-02 -7.751447264513657E-01  8.340396391073863E-02  5.265602666792041E-01  1.450337592695381E-01 -7.751447264513657E-01  1.450337592695381E-01  8.124076714080194E-01" Lattice="3.038818724786186E+00  0.000000000000000E+00  0.000000000000000E+00 -2.179885168422987E-02  3.212398788197385E+00  0.000000000000000E+00  1.590250242866424E+00  1.590250242866424E+00  1.590250242866424E+00" Properties=species:S:1:pos:R:3:force:R:3:Z:I:1]]>
    <![CDATA[W          0.000000000000000E+00 0.000000000000000E+00 0.000000000000000E+00 0.000000000000000E+00 0.000000000000000E+00 0.000000000000000E+00      74]]>
    <![CDATA[1]]>
    <![CDATA[config_type=slice_sample energy=-1.110502559315591E+01 virial="2.289272320955956E+00  7.506433971950895E-02 -1.091353330286063E+00  7.506433971950895E-02  6.118586670030415E-01  1.395670240654823E-01 -1.091353330286063E+00  1.395670240654823E-01  8.838781429355300E-01" Lattice="3.038818724786186E+00  0.000000000000000E+00  0.000000000000000E+00 -2.179885168422987E-02  3.212398788197385E+00  0.000000000000000E+00  1.622872785386917E+00  1.590250242866424E+00  1.590250242866424E+00" Properties=species:S:1:pos:R:3:force:R:3:Z:I:1]]>
    <![CDATA[W          0.000000000000000E+00 0.000000000000000E+00 0.000000000000000E+00 0.000000000000000E+00 0.000000000000000E+00 0.000000000000000E+00      74]]>
    <![CDATA[1]]>
    <![CDATA[config_type=slice_sample energy=-1.107178726401185E+01 virial="2.366708341138132E+00  2.984850909662429E-01 -1.153459267908989E+00  2.984850909662429E-01  6.505169761287716E-01 -1.078850573162021E+00 -1.153459267908989E+00 -1.078850573162021E+00  9.954183177698540E-01" Lattice="3.038818724786186E+00  0.000000000000000E+00  0.000000000000000E+00 -2.179885168422987E-02  3.212398788197385E+00  0.000000000000000E+00  1.622872785386917E+00  1.703672801629714E+00  1.590250242866424E+00" Properties=species:S:1:pos:R:3:force:R:3:Z:I:1]]>
    <![CDATA[W          0.000000000000000E+00 0.000000000000000E+00 0.000000000000000E+00 0.000000000000000E+00 0.000000000000000E+00 0.000000000000000E+00      74]]>
    <![CDATA[1]]>
    <![CDATA[config_type=slice_sample energy=-1.107280709591282E+01 virial="1.416009883366735E+00  2.626660424729885E-01 -9.857500759688004E-01  2.626660424729885E-01 -2.652328919061731E-01 -9.481702824802276E-01 -9.857500759688004E-01 -9.481702824802276E-01 -8.864525379378166E-01" Lattice="3.038818724786186E+00  0.000000000000000E+00  0.000000000000000E+00 -2.179885168422987E-02  3.212398788197385E+00  0.000000000000000E+00  1.622872785386917E+00  1.703672801629714E+00  1.656141367957325E+00" Properties=species:S:1:pos:R:3:force:R:3:Z:I:1]]>
    <![CDATA[W          0.000000000000000E+00 0.000000000000000E+00 0.000000000000000E+00 0.000000000000000E+00 0.000000000000000E+00 0.000000000000000E+00      74]]>
    <![CDATA[1]]>
    <![CDATA[config_type=slice_sample energy=-1.109842974024400E+01 virial="7.565718697438765E-01  2.279559390823608E-01 -8.183701120589786E-01  2.279559390823608E-01 -5.695736836205819E-01 -9.056221719292009E-01 -8.183701120589786E-01 -9.056221719292009E-01 -1.243721227274206E+00" Lattice="3.078389277843499E+00  0.000000000000000E+00  0.000000000000000E+00 -2.179885168422987E-02  3.212398788197385E+00  0.000000000000000E+00  1.622872785386917E+00  1.703672801629714E+00  1.656141367957325E+00" Properties=species:S:1:pos:R:3:force:R:3:Z:I:1]]>
    <![CDATA[W          0.000000000000000E+00 0.000000000000000E+00 0.000000000000000E+00 0.000000000000000E+00 0.000000000000000E+00 0.000000000000000E+00      74]]>
    <![CDATA[1]]>
    <![CDATA[config_type=slice_sample energy=-1.104124784300393E+01 virial="7.036350073775519E-01 -1.326021912385800E+00  8.706154213760039E-01 -1.326021912385800E+00 -3.879414328991584E-01 -1.142195385582939E+00  8.706154213760039E-01 -1.142195385582939E+00 -9.850919017012831E-01" Lattice="3.078389277843499E+00  0.000000000000000E+00  0.000000000000000E+00  3.006945132323558E-01  3.212398788197385E+00  0.000000000000000E+00  1.622872785386917E+00  1.703672801629714E+00  1.656141367957325E+00" Properties=species:S:1:pos:R:3:force:R:3:Z:I:1]]>
    <![CDATA[W          0.000000000000000E+00 0.000000000000000E+00 0.000000000000000E+00 0.000000000000000E+00 0.000000000000000E+00 0.000000000000000E+00      74]]>
    <![CDATA[1]]>
    <![CDATA[config_type=slice_sample energy=-1.104466707389997E+01 virial="5.762016936266187E-01 -1.294291463946341E+00  8.258187119568157E-01 -1.294291463946341E+00 -6.490278583540239E-01 -1.036689172960808E+00  8.258187119568157E-01 -1.036689172960808E+00 -1.134017436780203E+00" Lattice="3.078389277843499E+00  0.000000000000000E+00  0.000000000000000E+00  3.006945132323558E-01  3.230665029608677E+00  0.000000000000000E+00  1.622872785386917E+00  1.703672801629714E+00  1.656141367957325E+00" Properties=species:S:1:pos:R:3:force:R:3:Z:I:1]]>
    <![CDATA[W          0.000000000000000E+00 0.000000000000000E+00 0.000000000000000E+00 0.000000000000000E+00 0.000000000000000E+00 0.000000000000000E+00      74]]>
    <![CDATA[1]]>
    <![CDATA[config_type=slice_sample energy=-1.106519632329582E+01 virial="5.927434602326210E-01 -1.216317604437541E+00  3.288179265281010E-01 -1.216317604437541E+00 -7.053363730424629E-01 -8.546314520123550E-01  3.288179265281010E-01 -8.546314520123550E-01 -1.221296272269015E+00" Lattice="3.078389277843499E+00  0.000000000000000E+00  0.000000000000000E+00  3.006945132323558E-01  3.230665029608677E+00  0.000000000000000E+00  1.681840409942893E+00  1.703672801629714E+00  1.656141367957325E+00" Properties=species:S:1:pos:R:3:force:R:3:Z:I:1]]>
    <![CDATA[W          0.000000000000000E+00 0.000000000000000E+00 0.000000000000000E+00 0.000000000000000E+00 0.000000000000000E+00 0.000000000000000E+00      74]]>
    <![CDATA[1]]>
    <![CDATA[config_type=slice_sample energy=-1.106357695259203E+01 virial="5.964404406576157E-01 -1.218109457551729E+00  3.381286512904682E-01 -1.218109457551729E+00 -7.036637814178828E-01 -8.839756762784151E-01  3.381286512904682E-01 -8.839756762784151E-01 -1.214388498598493E+00" Lattice="3.078389277843499E+00  0.000000000000000E+00  0.000000000000000E+00  3.006945132323558E-01  3.230665029608677E+00  0.000000000000000E+00  1.681840409942893E+00  1.706757841868072E+00  1.656141367957325E+00" Properties=species:S:1:pos:R:3:force:R:3:Z:I:1]]>
    <![CDATA[W          0.000000000000000E+00 0.000000000000000E+00 0.000000000000000E+00 0.000000000000000E+00 0.000000000000000E+00 0.000000000000000E+00      74]]>
    <![CDATA[1]]>
    <![CDATA[config_type=slice_sample energy=-1.095008345730503E+01 virial="-5.302121768029835E-01 -8.776857520272425E-01  2.950366536729647E-01 -8.776857520272425E-01 -1.747195206333019E+00 -7.005089930926873E-01  2.950366536729647E-01 -7.005089930926873E-01 -3.077344595896728E+00" Lattice="3.078389277843499E+00  0.000000000000000E+00  0.000000000000000E+00  3.006945132323558E-01  3.230665029608677E+00  0.000000000000000E+00  1.681840409942893E+00  1.706757841868072E+00  1.743944114741169E+00" Properties=species:S:1:pos:R:3:force:R:3:Z:I:1]]>
    <![CDATA[W          0.000000000000000E+00 0.000000000000000E+00 0.000000000000000E+00 0.000000000000000E+00 0.000000000000000E+00 0.000000000000000E+00      74]]>
    <![CDATA[1]]>
    <![CDATA[config_type=slice_sample energy=-1.095137973338296E+01 virial="5.737837538608954E-01 -8.077301494430845E-01  5.912543636184247E-02 -8.077301494430845E-01 -1.271013022794058E+00 -6.122239203474013E-01  5.912543636184247E-02 -6.122239203474013E-01 -2.440075374644430E+00" Lattice="3.001706571918815E+00  0.000000000000000E+00  0.000000000000000E+00  3.006945132323558E-01  3.230665029608677E+00  0.000000000000000E+00  1.681840409942893E+00  1.706757841868072E+00  1.743944114741169E+00" Properties=species:S:1:pos:R:3:force:R:3:Z:I:1]]>
    <![CDATA[W          0.000000000000000E+00 0.000000000000000E+00 0.000000000000000E+00 0.000000000000000E+00 0.000000000000000E+00 0.000000000000000E+00      74]]>
    <![CDATA[1]]>
    <![CDATA[config_type=slice_sample energy=-1.095842859258300E+01 virial="5.310033084443162E-01 -5.346083254577579E-02 -7.571393314807088E-01 -5.346083254577579E-02 -1.301877718652669E+00 -5.723640003849765E-01 -7.571393314807088E-01 -5.723640003849765E-01 -2.375482903291292E+00" Lattice="3.001706571918815E+00  0.000000000000000E+00  0.000000000000000E+00  7.199413556243398E-02  3.230665029608677E+00  0.000000000000000E+00  1.681840409942893E+00  1.706757841868072E+00  1.743944114741169E+00" Properties=species:S:1:pos:R:3:force:R:3:Z:I:1]]>
    <![CDATA[W          0.000000000000000E+00 0.000000000000000E+00 0.000000000000000E+00 0.000000000000000E+00 0.000000000000000E+00 0.000000000000000E+00      74]]>
    <![CDATA[1]]>
    <![CDATA[config_type=slice_sample energy=-1.095313988005091E+01 virial="1.219913099598261E+00  3.931866402725943E-02 -8.945660643217979E-01  3.931866402725943E-02  8.735636594990114E-02 -1.014810102276372E+00 -8.945660643217979E-01 -1.014810102276372E+00 -1.406811355342708E+00" Lattice="3.001706571918815E+00  0.000000000000000E+00  0.000000000000000E+00  7.199413556243398E-02  3.125835011509266E+00  0.000000000000000E+00  1.681840409942893E+00  1.706757841868072E+00  1.743944114741169E+00" Properties=species:S:1:pos:R:3:force:R:3:Z:I:1]]>
    <![CDATA[W          0.000000000000000E+00 0.000000000000000E+00 0.000000000000000E+00 0.000000000000000E+00 0.000000000000000E+00 0.000000000000000E+00      74]]>
    <![CDATA[1]]>
    <![CDATA[config_type=slice_sample energy=-1.098358286231382E+01 virial="1.329786945054797E+00 -2.728933928834578E-01  2.010666300102295E-01 -2.728933928834578E-01 -2.176593680030844E-02 -9.968431766474029E-01  2.010666300102295E-01 -9.968431766474029E-01 -1.731560388039056E+00" Lattice="3.001706571918815E+00  0.000000000000000E+00  0.000000000000000E+00  7.199413556243398E-02  3.125835011509266E+00  0.000000000000000E+00  1.522664627644603E+00  1.706757841868072E+00  1.743944114741169E+00" Properties=species:S:1:pos:R:3:force:R:3:Z:I:1]]>
    <![CDATA[W          0.000000000000000E+00 0.000000000000000E+00 0.000000000000000E+00 0.000000000000000E+00 0.000000000000000E+00 0.000000000000000E+00      74]]>
    <![CDATA[1]]>
    <![CDATA[config_type=slice_sample energy=-1.102155792925396E+01 virial="1.340928807420046E+00 -2.267081645660373E-01  1.196443803765566E-01 -2.267081645660373E-01  2.482428019128508E-02 -3.155234308405157E-01  1.196443803765566E-01 -3.155234308405157E-01 -2.130234072165545E+00" Lattice="3.001706571918815E+00  0.000000000000000E+00  0.000000000000000E+00  7.199413556243398E-02  3.125835011509266E+00  0.000000000000000E+00  1.522664627644603E+00  1.606398214114054E+00  1.743944114741169E+00" Properties=species:S:1:pos:R:3:force:R:3:Z:I:1]]>
    <![CDATA[W          0.000000000000000E+00 0.000000000000000E+00 0.000000000000000E+00 0.000000000000000E+00 0.000000000000000E+00 0.000000000000000E+00      74]]>
    <![CDATA[1]]>
    <![CDATA[config_type=slice_sample energy=-1.108774583089303E+01 virial="3.006581681235903E+00 -3.353837290994668E-01  1.714878981650252E-01 -3.353837290994668E-01  1.519080714836035E+00 -4.657195694984309E-01  1.714878981650252E-01 -4.657195694984309E-01  2.312906056051710E-01" Lattice="3.001706571918815E+00  0.000000000000000E+00  0.000000000000000E+00  7.199413556243398E-02  3.125835011509266E+00  0.000000000000000E+00  1.522664627644603E+00  1.606398214114054E+00  1.637445816512864E+00" Properties=species:S:1:pos:R:3:force:R:3:Z:I:1]]>
    <![CDATA[W          0.000000000000000E+00 0.000000000000000E+00 0.000000000000000E+00 0.000000000000000E+00 0.000000000000000E+00 0.000000000000000E+00      74]]>
    <![CDATA[1]]>
    <![CDATA[config_type=slice_sample energy=-1.108151641134782E+01 virial="-1.498392547557076E+00 -3.599917587680774E-01  1.293002902947053E+00 -3.599917587680774E-01 -2.848037151530328E-02 -4.783393570772365E-01  1.293002902947053E+00 -4.783393570772365E-01 -1.372132673521348E+00" Lattice="3.271833752789468E+00  0.000000000000000E+00  0.000000000000000E+00  7.199413556243398E-02  3.125835011509266E+00  0.000000000000000E+00  1.522664627644603E+00  1.606398214114054E+00  1.637445816512864E+00" Properties=species:S:1:pos:R:3:force:R:3:Z:I:1]]>
    <![CDATA[W          0.000000000000000E+00 0.000000000000000E+00 0.000000000000000E+00 0.000000000000000E+00 0.000000000000000E+00 0.000000000000000E+00      74]]>
    <![CDATA[1]]>
    <![CDATA[config_type=slice_sample energy=-1.111970744138102E+01 virial="-1.550121171394846E+00  3.802857463912920E-02  8.198729733673793E-01  3.802857463912920E-02 -1.298412083890978E-01 -3.213296047682061E-01  8.198729733673793E-01 -3.213296047682061E-01 -1.525405460844732E+00" Lattice="3.271833752789468E+00  0.000000000000000E+00  0.000000000000000E+00 -2.798082216186325E-02  3.125835011509266E+00  0.000000000000000E+00  1.522664627644603E+00  1.606398214114054E+00  1.637445816512864E+00" Properties=species:S:1:pos:R:3:force:R:3:Z:I:1]]>
    <![CDATA[W          0.000000000000000E+00 0.000000000000000E+00 0.000000000000000E+00 0.000000000000000E+00 0.000000000000000E+00 0.000000000000000E+00      74]]>
    <![CDATA[1]]>
    <![CDATA[config_type=slice_sample energy=-1.111055081939389E+01 virial="-1.932386260510902E+00  8.627855692399444E-02  7.706614106097843E-01  8.627855692399444E-02 -1.135308012929059E+00 -6.098970586800848E-02  7.706614106097843E-01 -6.098970586800848E-02 -1.911829658537694E+00" Lattice="3.271833752789468E+00  0.000000000000000E+00  0.000000000000000E+00 -2.798082216186325E-02  3.190198796482162E+00  0.000000000000000E+00  1.522664627644603E+00  1.606398214114054E+00  1.637445816512864E+00" Properties=species:S:1:pos:R:3:force:R:3:Z:I:1]]>
    <![CDATA[W          0.000000000000000E+00 0.000000000000000E+00 0.000000000000000E+00 0.000000000000000E+00 0.000000000000000E+00 0.000000000000000E+00      74]]>
    <![CDATA[1]]>
    <![CDATA[config_type=slice_sample energy=-1.112093223144598E+01 virial="-1.949327476591527E+00  1.117437959235930E-01 -5.708181711683815E-01  1.117437959235930E-01 -1.171297952395162E+00 -1.063493404714863E-01 -5.708181711683815E-01 -1.063493404714863E-01 -1.949284665037008E+00" Lattice="3.271833752789468E+00  0.000000000000000E+00  0.000000000000000E+00 -2.798082216186325E-02  3.190198796482162E+00  0.000000000000000E+00  1.694897380951705E+00  1.606398214114054E+00  1.637445816512864E+00" Properties=species:S:1:pos:R:3:force:R:3:Z:I:1]]>
    <![CDATA[W          0.000000000000000E+00 0.000000000000000E+00 0.000000000000000E+00 0.000000000000000E+00 0.000000000000000E+00 0.000000000000000E+00      74]]>
    <![CDATA[1]]>
    <![CDATA[config_type=slice_sample energy=-1.110146568405389E+01 virial="-1.862966303356690E+00  8.699963250913077E-03 -5.605247157776583E-01  8.699963250913077E-03 -1.169712939281413E+00  7.122356516513972E-01 -5.605247157776583E-01  7.122356516513972E-01 -1.873552302703062E+00" Lattice="3.271833752789468E+00  0.000000000000000E+00  0.000000000000000E+00 -2.798082216186325E-02  3.190198796482162E+00  0.000000000000000E+00  1.694897380951705E+00  1.500347735920348E+00  1.637445816512864E+00" Properties=species:S:1:pos:R:3:force:R:3:Z:I:1]]>
    <![CDATA[W          0.000000000000000E+00 0.000000000000000E+00 0.000000000000000E+00 0.000000000000000E+00 0.000000000000000E+00 0.000000000000000E+00      74]]>
    <![CDATA[1]]>
    <![CDATA[config_type=slice_sample energy=-1.111615113521384E+01 virial="-4.612530538081991E-01  3.205948044420181E-03 -6.064159626858588E-01  3.205948044420181E-03  1.862175237766550E-01  7.792652471818519E-01 -6.064159626858588E-01  7.792652471818519E-01  1.570580973270582E+00" Lattice="3.271833752789468E+00  0.000000000000000E+00  0.000000000000000E+00 -2.798082216186325E-02  3.190198796482162E+00  0.000000000000000E+00  1.694897380951705E+00  1.500347735920348E+00  1.527125807989284E+00" Properties=species:S:1:pos:R:3:force:R:3:Z:I:1]]>
    <![CDATA[W          0.000000000000000E+00 0.000000000000000E+00 0.000000000000000E+00 0.000000000000000E+00 0.000000000000000E+00 0.000000000000000E+00      74]]>
    <![CDATA[1]]>
    <![CDATA[config_type=slice_sample energy=-1.109639226696686E+01 virial="5.779464432243903E-01 -4.655350257795186E-02 -9.976895625497620E-01 -4.655350257795186E-02  7.156932962859089E-01  8.835593405319530E-01 -9.976895625497620E-01  8.835593405319530E-01  2.080128530203785E+00" Lattice="3.204126697558264E+00  0.000000000000000E+00  0.000000000000000E+00 -2.798082216186325E-02  3.190198796482162E+00  0.000000000000000E+00  1.694897380951705E+00  1.500347735920348E+00  1.527125807989284E+00" Properties=species:S:1:pos:R:3:force:R:3:Z:I:1]]>
    <![CDATA[W          0.000000000000000E+00 0.000000000000000E+00 0.000000000000000E+00 0.000000000000000E+00 0.000000000000000E+00 0.000000000000000E+00      74]]>
    <![CDATA[1]]>
    <![CDATA[config_type=slice_sample energy=-1.108354160524982E+01 virial="6.029106815505276E-01  1.147386109137039E-01 -1.145886171694050E+00  1.147386109137039E-01  7.741710987983796E-01  8.440079324734657E-01 -1.145886171694050E+00  8.440079324734657E-01  2.092231017509472E+00" Lattice="3.204126697558264E+00  0.000000000000000E+00  0.000000000000000E+00 -6.570342507639909E-02  3.190198796482162E+00  0.000000000000000E+00  1.694897380951705E+00  1.500347735920348E+00  1.527125807989284E+00" Properties=species:S:1:pos:R:3:force:R:3:Z:I:1]]>
    <![CDATA[W          0.000000000000000E+00 0.000000000000000E+00 0.000000000000000E+00 0.000000000000000E+00 0.000000000000000E+00 0.000000000000000E+00      74]]>
    <![CDATA[1]]>
    <![CDATA[config_type=slice_sample energy=-1.108293097198703E+01 virial="5.345763281704842E-01  9.985998507000886E-02 -1.131107696740309E+00  9.985998507000886E-02  5.953191917922442E-01  8.924090563900658E-01 -1.131107696740309E+00  8.924090563900658E-01  2.011033194973082E+00" Lattice="3.204126697558264E+00  0.000000000000000E+00  0.000000000000000E+00 -6.570342507639909E-02  3.201862177383302E+00  0.000000000000000E+00  1.694897380951705E+00  1.500347735920348E+00  1.527125807989284E+00" Properties=species:S:1:pos:R:3:force:R:3:Z:I:1]]>
    <![CDATA[W          0.000000000000000E+00 0.000000000000000E+00 0.000000000000000E+00 0.000000000000000E+00 0.000000000000000E+00 0.000000000000000E+00      74]]>
    <![CDATA[1]]>
    <![CDATA[config_type=slice_sample energy=-1.110947690022294E+01 virial="4.905196972072134E-01  1.799858556281429E-01 -6.916618835523815E-01  1.799858556281429E-01  4.827655951724750E-01  8.766977503657116E-01 -6.916618835523815E-01  8.766977503657116E-01  1.978874266756649E+00" Lattice="3.204126697558264E+00  0.000000000000000E+00  0.000000000000000E+00 -6.570342507639909E-02  3.201862177383302E+00  0.000000000000000E+00  1.650339787509082E+00  1.500347735920348E+00  1.527125807989284E+00" Properties=species:S:1:pos:R:3:force:R:3:Z:I:1]]>
    <![CDATA[W          0.000000000000000E+00 0.000000000000000E+00 0.000000000000000E+00 0.000000000000000E+00 0.000000000000000E+00 0.000000000000000E+00      74]]>
    <![CDATA[1]]>
    <![CDATA[config_type=slice_sample energy=-1.113583718682185E+01 virial="3.626220049330611E-01  3.035432419998056E-01 -7.106757366885375E-01  3.035432419998056E-01  4.317793895481537E-01  9.965055208277832E-02 -7.106757366885375E-01  9.965055208277832E-02  1.960995088155853E+00" Lattice="3.204126697558264E+00  0.000000000000000E+00  0.000000000000000E+00 -6.570342507639909E-02  3.201862177383302E+00  0.000000000000000E+00  1.650339787509082E+00  1.583064232311216E+00  1.527125807989284E+00" Properties=species:S:1:pos:R:3:force:R:3:Z:I:1]]>
    <![CDATA[W          0.000000000000000E+00 0.000000000000000E+00 0.000000000000000E+00 0.000000000000000E+00 0.000000000000000E+00 0.000000000000000E+00      74]]>
    <![CDATA[1]]>
    <![CDATA[config_type=slice_sample energy=-1.106273650241997E+01 virial="-1.651320514526758E+00  1.972757573012558E-01 -5.728242263422000E-01  1.972757573012558E-01 -1.577172182758546E+00  8.144058459021059E-02 -5.728242263422000E-01  8.144058459021059E-02 -3.028793190652772E+00" Lattice="3.204126697558264E+00  0.000000000000000E+00  0.000000000000000E+00 -6.570342507639909E-02  3.201862177383302E+00  0.000000000000000E+00  1.650339787509082E+00  1.583064232311216E+00  1.694338450908520E+00" Properties=species:S:1:pos:R:3:force:R:3:Z:I:1]]>
    <![CDATA[W          0.000000000000000E+00 0.000000000000000E+00 0.000000000000000E+00 0.000000000000000E+00 0.000000000000000E+00 0.000000000000000E+00      74]]>
    <![CDATA[1]]>
    <![CDATA[config_type=slice_sample energy=-1.106155801084697E+01 virial="9.917805298408348E-02  2.070274158278730E-01 -1.037264533206995E+00  2.070274158278730E-01 -8.261467783528598E-01  5.983600222476888E-02 -1.037264533206995E+00  5.983600222476888E-02 -2.091443836742958E+00" Lattice="3.085021668355933E+00  0.000000000000000E+00  0.000000000000000E+00 -6.570342507639909E-02  3.201862177383302E+00  0.000000000000000E+00  1.650339787509082E+00  1.583064232311216E+00  1.694338450908520E+00" Properties=species:S:1:pos:R:3:force:R:3:Z:I:1]]>
    <![CDATA[W          0.000000000000000E+00 0.000000000000000E+00 0.000000000000000E+00 0.000000000000000E+00 0.000000000000000E+00 0.000000000000000E+00      74]]>
    <![CDATA[1]]>
    <![CDATA[config_type=slice_sample energy=-1.109270273954394E+01 virial="1.821629391339912E-01 -3.452844476671476E-01 -4.643935104853285E-01 -3.452844476671476E-01 -9.500540261444592E-01  2.011387219667535E-01 -4.643935104853285E-01  2.011387219667535E-01 -2.317182187566836E+00" Lattice="3.085021668355933E+00  0.000000000000000E+00  0.000000000000000E+00  9.388832725403003E-02  3.201862177383302E+00  0.000000000000000E+00  1.650339787509082E+00  1.583064232311216E+00  1.694338450908520E+00" Properties=species:S:1:pos:R:3:force:R:3:Z:I:1]]>
    <![CDATA[W          0.000000000000000E+00 0.000000000000000E+00 0.000000000000000E+00 0.000000000000000E+00 0.000000000000000E+00 0.000000000000000E+00      74]]>
    <![CDATA[1]]>
    <![CDATA[config_type=slice_sample energy=-1.109098084204084E+01 virial="1.562397917031521E-01 -3.462211093854751E-01 -4.640479734717237E-01 -3.462211093854751E-01 -1.017991895014000E+00  2.194325789163504E-01 -4.640479734717237E-01  2.194325789163504E-01 -2.344149945462219E+00" Lattice="3.085021668355933E+00  0.000000000000000E+00  0.000000000000000E+00  9.388832725403003E-02  3.206540817744784E+00  0.000000000000000E+00  1.650339787509082E+00  1.583064232311216E+00  1.694338450908520E+00" Properties=species:S:1:pos:R:3:force:R:3:Z:I:1]]>
    <![CDATA[W          0.000000000000000E+00 0.000000000000000E+00 0.000000000000000E+00 0.000000000000000E+00 0.000000000000000E+00 0.000000000000000E+00      74]]>
    <![CDATA[1]]>
    <![CDATA[config_type=slice_sample energy=-1.109228124858987E+01 virial="1.590970053383137E-01 -3.441744443062382E-01 -4.282147488966739E-01 -3.441744443062382E-01 -1.023138820552201E+00  2.144738346648530E-01 -4.282147488966739E-01  2.144738346648530E-01 -2.352686980204377E+00" Lattice="3.085021668355933E+00  0.000000000000000E+00  0.000000000000000E+00  9.388832725403003E-02  3.206540817744784E+00  0.000000000000000E+00  1.645401387127529E+00  1.583064232311216E+00  1.694338450908520E+00" Properties=species:S:1:pos:R:3:force:R:3:Z:I:1]]>
    <![CDATA[W          0.000000000000000E+00 0.000000000000000E+00 0.000000000000000E+00 0.000000000000000E+00 0.000000000000000E+00 0.000000000000000E+00      74]]>
    <![CDATA[1]]>
    <![CDATA[config_type=slice_sample energy=-1.109392829629701E+01 virial="1.571863573578372E-01 -3.261245360162258E-01 -4.063164027968212E-01 -3.261245360162258E-01 -1.024279635216012E+00  3.173108512966416E-02 -4.063164027968212E-01  3.173108512966416E-02 -2.360591380857114E+00" Lattice="3.085021668355933E+00  0.000000000000000E+00  0.000000000000000E+00  9.388832725403003E-02  3.206540817744784E+00  0.000000000000000E+00  1.645401387127529E+00  1.605742314063377E+00  1.694338450908520E+00" Properties=species:S:1:pos:R:3:force:R:3:Z:I:1]]>
    <![CDATA[W          0.000000000000000E+00 0.000000000000000E+00 0.000000000000000E+00 0.000000000000000E+00 0.000000000000000E+00 0.000000000000000E+00      74]]>
    <![CDATA[1]]>
    <![CDATA[config_type=slice_sample energy=-1.108888866123789E+01 virial="2.404788128899110E+00 -5.124105988995212E-01 -5.506716994157915E-01 -5.124105988995212E-01  1.224592803508470E+00  4.166119943228822E-02 -5.506716994157915E-01  4.166119943228822E-02  2.851512572820580E+00" Lattice="3.085021668355933E+00  0.000000000000000E+00  0.000000000000000E+00  9.388832725403003E-02  3.206540817744784E+00  0.000000000000000E+00  1.645401387127529E+00  1.605742314063377E+00  1.525466777861103E+00" Properties=species:S:1:pos:R:3:force:R:3:Z:I:1]]>
    <![CDATA[W          0.000000000000000E+00 0.000000000000000E+00 0.000000000000000E+00 0.000000000000000E+00 0.000000000000000E+00 0.000000000000000E+00      74]]>
    <![CDATA[1]]>
    <![CDATA[config_type=slice_sample energy=-1.113450002507398E+01 virial="1.234669441393056E+00 -4.903094874496515E-01 -2.206892999805623E-01 -4.903094874496515E-01  7.010050713583216E-01  5.998113550164297E-03 -2.206892999805623E-01  5.998113550164297E-03  2.383446143906622E+00" Lattice="3.148778473281932E+00  0.000000000000000E+00  0.000000000000000E+00  9.388832725403003E-02  3.206540817744784E+00  0.000000000000000E+00  1.645401387127529E+00  1.605742314063377E+00  1.525466777861103E+00" Properties=species:S:1:pos:R:3:force:R:3:Z:I:1]]>
    <![CDATA[W          0.000000000000000E+00 0.000000000000000E+00 0.000000000000000E+00 0.000000000000000E+00 0.000000000000000E+00 0.000000000000000E+00      74]]>
    <![CDATA[1]]>
    <![CDATA[config_type=slice_sample energy=-1.110639242451498E+01 virial="1.247176953705938E+00 -1.077252007195090E+00  2.988331146600096E-01 -1.077252007195090E+00  8.073953067337181E-01 -9.910351314893304E-02  2.988331146600096E-01 -9.910351314893304E-02  2.457140880582714E+00" Lattice="3.148778473281932E+00  0.000000000000000E+00  0.000000000000000E+00  2.036847657371577E-01  3.206540817744784E+00  0.000000000000000E+00  1.645401387127529E+00  1.605742314063377E+00  1.525466777861103E+00" Properties=species:S:1:pos:R:3:force:R:3:Z:I:1]]>
    <![CDATA[W          0.000000000000000E+00 0.000000000000000E+00 0.000000000000000E+00 0.000000000000000E+00 0.000000000000000E+00 0.000000000000000E+00      74]]>
    <![CDATA[1]]>
    <![CDATA[config_type=slice_sample energy=-1.110903695358297E+01 virial="6.963379635180765E-01 -9.705691740054890E-01  1.684879505851805E-01 -9.705691740054890E-01 -3.809278607216806E-01  2.570771923331301E-01  1.684879505851805E-01  2.570771923331301E-01  1.860716422360853E+00" Lattice="3.148778473281932E+00  0.000000000000000E+00  0.000000000000000E+00  2.036847657371577E-01  3.287710984016180E+00  0.000000000000000E+00  1.645401387127529E+00  1.605742314063377E+00  1.525466777861103E+00" Properties=species:S:1:pos:R:3:force:R:3:Z:I:1]]>
    <![CDATA[W          0.000000000000000E+00 0.000000000000000E+00 0.000000000000000E+00 0.000000000000000E+00 0.000000000000000E+00 0.000000000000000E+00      74]]>
    <![CDATA[1]]>
    <![CDATA[config_type=slice_sample energy=-1.108939028085001E+01 virial="7.298840800472416E-01 -9.304126471842024E-01  7.380278795046054E-01 -9.304126471842024E-01 -2.624525152124012E-01  1.224332917737380E-01  7.380278795046054E-01  1.224332917737380E-01  1.856020522827408E+00" Lattice="3.148778473281932E+00  0.000000000000000E+00  0.000000000000000E+00  2.036847657371577E-01  3.287710984016180E+00  0.000000000000000E+00  1.578888321988576E+00  1.605742314063377E+00  1.525466777861103E+00" Properties=species:S:1:pos:R:3:force:R:3:Z:I:1]]>
    <![CDATA[W          0.000000000000000E+00 0.000000000000000E+00 0.000000000000000E+00 0.000000000000000E+00 0.000000000000000E+00 0.000000000000000E+00      74]]>
    <![CDATA[1]]>
    <![CDATA[config_type=slice_sample energy=-1.108081897202987E+01 virial="7.859009522763118E-01 -8.577490317881828E-01  6.667738678686541E-01 -8.577490317881828E-01 -2.251578940652603E-01  5.103849150027591E-01  6.667738678686541E-01  5.103849150027591E-01  1.842834191875893E+00" Lattice="3.148778473281932E+00  0.000000000000000E+00  0.000000000000000E+00  2.036847657371577E-01  3.287710984016180E+00  0.000000000000000E+00  1.578888321988576E+00  1.564236790856564E+00  1.525466777861103E+00" Properties=species:S:1:pos:R:3:force:R:3:Z:I:1]]>
    <![CDATA[W          0.000000000000000E+00 0.000000000000000E+00 0.000000000000000E+00 0.000000000000000E+00 0.000000000000000E+00 0.000000000000000E+00      74]]>
    <![CDATA[1]]>
    <![CDATA[config_type=slice_sample energy=-1.109365015083586E+01 virial="6.144097575477475E-01 -8.436311637718955E-01  6.687252448385699E-01 -8.436311637718955E-01 -4.152910040019521E-01  5.146066705192651E-01  6.687252448385699E-01  5.146066705192651E-01  1.420939660943998E+00" Lattice="3.148778473281932E+00  0.000000000000000E+00  0.000000000000000E+00  2.036847657371577E-01  3.287710984016180E+00  0.000000000000000E+00  1.578888321988576E+00  1.564236790856564E+00  1.537477688789094E+00" Properties=species:S:1:pos:R:3:force:R:3:Z:I:1]]>
    <![CDATA[W          0.000000000000000E+00 0.000000000000000E+00 0.000000000000000E+00 0.000000000000000E+00 0.000000000000000E+00 0.000000000000000E+00      74]]>
    <![CDATA[1]]>
    <![CDATA[config_type=slice_sample energy=-1.108196734733701E+01 virial="1.595019683793754E+00 -9.095550910580368E-01  4.322530398326513E-01 -9.095550910580368E-01 -3.724237132905771E-02  6.099124300547194E-01  4.322530398326513E-01  6.099124300547194E-01  1.819722774174035E+00" Lattice="3.090097638748114E+00  0.000000000000000E+00  0.000000000000000E+00  2.036847657371577E-01  3.287710984016180E+00  0.000000000000000E+00  1.578888321988576E+00  1.564236790856564E+00  1.537477688789094E+00" Properties=species:S:1:pos:R:3:force:R:3:Z:I:1]]>
    <![CDATA[W          0.000000000000000E+00 0.000000000000000E+00 0.000000000000000E+00 0.000000000000000E+00 0.000000000000000E+00 0.000000000000000E+00      74]]>
    <![CDATA[1]]>
    <![CDATA[config_type=slice_sample energy=-1.104887859271184E+01 virial="1.581808648595785E+00 -1.199495818090153E+00  6.847716856469018E-01 -1.199495818090153E+00  1.600180397055014E-01  4.852259688519143E-01  6.847716856469018E-01  4.852259688519143E-01  1.880893050368008E+00" Lattice="3.090097638748114E+00  0.000000000000000E+00  0.000000000000000E+00  2.707624409197345E-01  3.287710984016180E+00  0.000000000000000E+00  1.578888321988576E+00  1.564236790856564E+00  1.537477688789094E+00" Properties=species:S:1:pos:R:3:force:R:3:Z:I:1]]>
    <![CDATA[W          0.000000000000000E+00 0.000000000000000E+00 0.000000000000000E+00 0.000000000000000E+00 0.000000000000000E+00 0.000000000000000E+00      74]]>
    <![CDATA[1]]>
    <![CDATA[config_type=slice_sample energy=-1.104714834892184E+01 virial="1.920729392197074E+00 -1.321184941329643E+00  8.122365039470220E-01 -1.321184941329643E+00  8.361653870910153E-01  2.574456573607005E-01  8.122365039470220E-01  2.574456573607005E-01  2.276159632113956E+00" Lattice="3.090097638748114E+00  0.000000000000000E+00  0.000000000000000E+00  2.707624409197345E-01  3.237948280171398E+00  0.000000000000000E+00  1.578888321988576E+00  1.564236790856564E+00  1.537477688789094E+00" Properties=species:S:1:pos:R:3:force:R:3:Z:I:1]]>
    <![CDATA[W          0.000000000000000E+00 0.000000000000000E+00 0.000000000000000E+00 0.000000000000000E+00 0.000000000000000E+00 0.000000000000000E+00      74]]>
    <![CDATA[1]]>
    <![CDATA[config_type=slice_sample energy=-1.106897237702697E+01 virial="1.905291506379294E+00 -1.402116944926492E+00  2.222684259600493E-02 -1.402116944926492E+00  7.066257795718323E-01  5.024439916907572E-01  2.222684259600493E-02  5.024439916907572E-01  2.262103513196554E+00" Lattice="3.090097638748114E+00  0.000000000000000E+00  0.000000000000000E+00  2.707624409197345E-01  3.237948280171398E+00  0.000000000000000E+00  1.659797888239837E+00  1.564236790856564E+00  1.537477688789094E+00" Properties=species:S:1:pos:R:3:force:R:3:Z:I:1]]>
    <![CDATA[W          0.000000000000000E+00 0.000000000000000E+00 0.000000000000000E+00 0.000000000000000E+00 0.000000000000000E+00 0.000000000000000E+00      74]]>
    <![CDATA[1]]>
    <![CDATA[config_type=slice_sample energy=-1.107251511855884E+01 virial="1.891216742998801E+00 -1.403479250659819E+00  6.152566026839666E-02 -1.403479250659819E+00  6.973228939232922E-01  3.707226334343164E-01  6.152566026839666E-02  3.707226334343164E-01  2.258889218927082E+00" Lattice="3.090097638748114E+00  0.000000000000000E+00  0.000000000000000E+00  2.707624409197345E-01  3.237948280171398E+00  0.000000000000000E+00  1.659797888239837E+00  1.576713801820567E+00  1.537477688789094E+00" Properties=species:S:1:pos:R:3:force:R:3:Z:I:1]]>
    <![CDATA[W          0.000000000000000E+00 0.000000000000000E+00 0.000000000000000E+00 0.000000000000000E+00 0.000000000000000E+00 0.000000000000000E+00      74]]>
    <![CDATA[1]]>
    <![CDATA[config_type=slice_sample energy=-1.109393583263591E+01 virial="1.648603352247230E+00 -1.356243794333271E+00  6.396969794350307E-02 -1.356243794333271E+00  4.311146751237358E-01  3.702870897821154E-01  6.396969794350307E-02  3.702870897821154E-01  1.641066732622811E+00" Lattice="3.090097638748114E+00  0.000000000000000E+00  0.000000000000000E+00  2.707624409197345E-01  3.237948280171398E+00  0.000000000000000E+00  1.659797888239837E+00  1.576713801820567E+00  1.554428020098716E+00" Properties=species:S:1:pos:R:3:force:R:3:Z:I:1]]>
    <![CDATA[W          0.000000000000000E+00 0.000000000000000E+00 0.000000000000000E+00 0.000000000000000E+00 0.000000000000000E+00 0.000000000000000E+00      74]]>
    <![CDATA[1]]>
    <![CDATA[config_type=slice_sample energy=-1.106913632655483E+01 virial="-1.454384950577582E+00 -1.069823793600173E+00  8.617233170305343E-01 -1.069823793600173E+00 -8.514995421268544E-01  4.162222937710759E-03  8.617233170305343E-01  4.162222937710759E-03  2.529746748858889E-01" Lattice="3.300908095035819E+00  0.000000000000000E+00  0.000000000000000E+00  2.707624409197345E-01  3.237948280171398E+00  0.000000000000000E+00  1.659797888239837E+00  1.576713801820567E+00  1.554428020098716E+00" Properties=species:S:1:pos:R:3:force:R:3:Z:I:1]]>
    <![CDATA[W          0.000000000000000E+00 0.000000000000000E+00 0.000000000000000E+00 0.000000000000000E+00 0.000000000000000E+00 0.000000000000000E+00      74]]>
    <![CDATA[1]]>
    <![CDATA[config_type=slice_sample energy=-1.111358572655786E+01 virial="-1.569629897774444E+00  6.231533214789372E-01 -6.127832427240586E-01  6.231533214789372E-01 -1.025080439826268E+00  1.802402054199661E-01 -6.127832427240586E-01  1.802402054199661E-01  1.700662884259158E-01" Lattice="3.300908095035819E+00  0.000000000000000E+00  0.000000000000000E+00 -1.624040625477147E-01  3.237948280171398E+00  0.000000000000000E+00  1.659797888239837E+00  1.576713801820567E+00  1.554428020098716E+00" Properties=species:S:1:pos:R:3:force:R:3:Z:I:1]]>
    <![CDATA[W          0.000000000000000E+00 0.000000000000000E+00 0.000000000000000E+00 0.000000000000000E+00 0.000000000000000E+00 0.000000000000000E+00      74]]>
    <![CDATA[1]]>
    <![CDATA[config_type=slice_sample energy=-1.110720833262394E+01 virial="-6.844377664853026E-01  7.632960630903595E-01 -8.649611644973728E-01  7.632960630903595E-01  1.163025321550891E+00 -4.200079046987553E-01 -8.649611644973728E-01 -4.200079046987553E-01  1.069631658336858E+00" Lattice="3.300908095035819E+00  0.000000000000000E+00  0.000000000000000E+00 -1.624040625477147E-01  3.100171709526460E+00  0.000000000000000E+00  1.659797888239837E+00  1.576713801820567E+00  1.554428020098716E+00" Properties=species:S:1:pos:R:3:force:R:3:Z:I:1]]>
    <![CDATA[W          0.000000000000000E+00 0.000000000000000E+00 0.000000000000000E+00 0.000000000000000E+00 0.000000000000000E+00 0.000000000000000E+00      74]]>
    <![CDATA[1]]>
    <![CDATA[config_type=slice_sample energy=-1.108368168678385E+01 virial="-5.927253580144901E-01  6.569740317184387E-01  1.207434160460696E+00  6.569740317184387E-01  1.252021972989471E+00  1.017942576290020E-02  1.207434160460696E+00  1.017942576290020E-02  1.086849021895471E+00" Lattice="3.300908095035819E+00  0.000000000000000E+00  0.000000000000000E+00 -1.624040625477147E-01  3.100171709526460E+00  0.000000000000000E+00  1.432002750639856E+00  1.576713801820567E+00  1.554428020098716E+00" Properties=species:S:1:pos:R:3:force:R:3:Z:I:1]]>
    <![CDATA[W          0.000000000000000E+00 0.000000000000000E+00 0.000000000000000E+00 0.000000000000000E+00 0.000000000000000E+00 0.000000000000000E+00      74]]>
    <![CDATA[1]]>
    <![CDATA[config_type=slice_sample energy=-1.108348326537498E+01 virial="-5.982950321728850E-01  6.738852686963640E-01  1.219434235656732E+00  6.738852686963640E-01  1.254639056596795E+00  7.738353024605564E-02  1.219434235656732E+00  7.738353024605564E-02  1.088905848152429E+00" Lattice="3.300908095035819E+00  0.000000000000000E+00  0.000000000000000E+00 -1.624040625477147E-01  3.100171709526460E+00  0.000000000000000E+00  1.432002750639856E+00  1.569667001276115E+00  1.554428020098716E+00" Properties=species:S:1:pos:R:3:force:R:3:Z:I:1]]>
    <![CDATA[W          0.000000000000000E+00 0.000000000000000E+00 0.000000000000000E+00 0.000000000000000E+00 0.000000000000000E+00 0.000000000000000E+00      74]]>
    <![CDATA[1]]>
    <![CDATA[config_type=slice_sample energy=-1.109462947542693E+01 virial="-1.174113223993604E+00  6.106420838192080E-01  1.184481090005525E+00  6.106420838192080E-01  7.113135655197603E-01  7.148872281595420E-02  1.184481090005525E+00  7.148872281595420E-02 -2.062049844747444E-01" Lattice="3.300908095035819E+00  0.000000000000000E+00  0.000000000000000E+00 -1.624040625477147E-01  3.100171709526460E+00  0.000000000000000E+00  1.432002750639856E+00  1.569667001276115E+00  1.595261713253622E+00" Properties=species:S:1:pos:R:3:force:R:3:Z:I:1]]>
    <![CDATA[W          0.000000000000000E+00 0.000000000000000E+00 0.000000000000000E+00 0.000000000000000E+00 0.000000000000000E+00 0.000000000000000E+00      74]]>
    <![CDATA[1]]>
    <![CDATA[config_type=slice_sample energy=-1.109899835710394E+01 virial="-1.096688030598209E+00  6.175290855612152E-01  1.164729280877148E+00  6.175290855612152E-01  7.471201112136906E-01  6.516052917230708E-02  1.164729280877148E+00  6.516052917230708E-02 -1.705920560382304E-01" Lattice="3.294409994533761E+00  0.000000000000000E+00  0.000000000000000E+00 -1.624040625477147E-01  3.100171709526460E+00  0.000000000000000E+00  1.432002750639856E+00  1.569667001276115E+00  1.595261713253622E+00" Properties=species:S:1:pos:R:3:force:R:3:Z:I:1]]>
    <![CDATA[W          0.000000000000000E+00 0.000000000000000E+00 0.000000000000000E+00 0.000000000000000E+00 0.000000000000000E+00 0.000000000000000E+00      74]]>
    <![CDATA[1]]>
    <![CDATA[config_type=slice_sample energy=-1.110329037446991E+01 virial="-1.098129453396594E+00  7.777572326276495E-01  9.871664728162793E-01  7.777572326276495E-01  7.132725967401965E-01  7.676302817605339E-02  9.871664728162793E-01  7.676302817605339E-02 -1.695029133544656E-01" Lattice="3.294409994533761E+00  0.000000000000000E+00  0.000000000000000E+00 -1.993770854043363E-01  3.100171709526460E+00  0.000000000000000E+00  1.432002750639856E+00  1.569667001276115E+00  1.595261713253622E+00" Properties=species:S:1:pos:R:3:force:R:3:Z:I:1]]>
    <![CDATA[W          0.000000000000000E+00 0.000000000000000E+00 0.000000000000000E+00 0.000000000000000E+00 0.000000000000000E+00 0.000000000000000E+00      74]]>
    <![CDATA[1]]>
    <![CDATA[config_type=slice_sample energy=-1.105753167565399E+01 virial="-2.054512858313892E+00  8.846401693639692E-01  9.852645342777965E-01  8.846401693639692E-01 -1.674171719600527E+00  6.994057164043314E-01  9.852645342777965E-01  6.994057164043314E-01 -1.072848792836509E+00" Lattice="3.294409994533761E+00  0.000000000000000E+00  0.000000000000000E+00 -1.993770854043363E-01  3.260120651884487E+00  0.000000000000000E+00  1.432002750639856E+00  1.569667001276115E+00  1.595261713253622E+00" Properties=species:S:1:pos:R:3:force:R:3:Z:I:1]]>
    <![CDATA[W          0.000000000000000E+00 0.000000000000000E+00 0.000000000000000E+00 0.000000000000000E+00 0.000000000000000E+00 0.000000000000000E+00      74]]>
    <![CDATA[1]]>
    <![CDATA[config_type=slice_sample energy=-1.108418607985300E+01 virial="-2.070377139182514E+00  6.966321516773990E-01 -5.660762515389722E-01  6.966321516773990E-01 -1.750269622209897E+00  2.941022922588377E-01 -5.660762515389722E-01  2.941022922588377E-01 -1.154118607583635E+00" Lattice="3.294409994533761E+00  0.000000000000000E+00  0.000000000000000E+00 -1.993770854043363E-01  3.260120651884487E+00  0.000000000000000E+00  1.638992936632398E+00  1.569667001276115E+00  1.595261713253622E+00" Properties=species:S:1:pos:R:3:force:R:3:Z:I:1]]>
    <![CDATA[W          0.000000000000000E+00 0.000000000000000E+00 0.000000000000000E+00 0.000000000000000E+00 0.000000000000000E+00 0.000000000000000E+00      74]]>
    <![CDATA[1]]>
    <![CDATA[config_type=slice_sample energy=-1.108554975356083E+01 virial="-2.079966088605958E+00  7.064149954709071E-01 -5.789656580721921E-01  7.064149954709071E-01 -1.752697172504551E+00  2.295461623894272E-01 -5.789656580721921E-01  2.295461623894272E-01 -1.155552092414616E+00" Lattice="3.294409994533761E+00  0.000000000000000E+00  0.000000000000000E+00 -1.993770854043363E-01  3.260120651884487E+00  0.000000000000000E+00  1.638992936632398E+00  1.577978121918252E+00  1.595261713253622E+00" Properties=species:S:1:pos:R:3:force:R:3:Z:I:1]]>
    <![CDATA[W          0.000000000000000E+00 0.000000000000000E+00 0.000000000000000E+00 0.000000000000000E+00 0.000000000000000E+00 0.000000000000000E+00      74]]>
    <![CDATA[1]]>
    <![CDATA[config_type=slice_sample energy=-1.107535998983803E+01 virial="-9.678420370704436E-01  8.090299983086600E-01 -5.426981094028133E-01  8.090299983086600E-01 -6.525110744882645E-01  1.962026924567612E-01 -5.426981094028133E-01  1.962026924567612E-01  1.585652438695479E+00" Lattice="3.294409994533761E+00  0.000000000000000E+00  0.000000000000000E+00 -1.993770854043363E-01  3.260120651884487E+00  0.000000000000000E+00  1.638992936632398E+00  1.577978121918252E+00  1.510152566677892E+00" Properties=species:S:1:pos:R:3:force:R:3:Z:I:1]]>
    <![CDATA[W          0.000000000000000E+00 0.000000000000000E+00 0.000000000000000E+00 0.000000000000000E+00 0.000000000000000E+00 0.000000000000000E+00      74]]>
    <![CDATA[1]]>
    <![CDATA[config_type=slice_sample energy=-1.107564671406590E+01 virial="-5.957501209426029E-01  8.264841650884724E-01 -6.837095349195988E-01  8.264841650884724E-01 -4.473234295745717E-01  1.882179519705256E-01 -6.837095349195988E-01  1.882179519705256E-01  1.761619787910040E+00" Lattice="3.267740222473193E+00  0.000000000000000E+00  0.000000000000000E+00 -1.993770854043363E-01  3.260120651884487E+00  0.000000000000000E+00  1.638992936632398E+00  1.577978121918252E+00  1.510152566677892E+00" Properties=species:S:1:pos:R:3:force:R:3:Z:I:1]]>
    <![CDATA[W          0.000000000000000E+00 0.000000000000000E+00 0.000000000000000E+00 0.000000000000000E+00 0.000000000000000E+00 0.000000000000000E+00      74]]>
    <![CDATA[1]]>
    <![CDATA[config_type=slice_sample energy=-1.112257751521793E+01 virial="-7.435426466196994E-01 -6.449738810104019E-02  4.990370292497874E-03 -6.449738810104019E-02 -6.944266311133019E-01  3.669000198033525E-01  4.990370292497874E-03  3.669000198033525E-01  1.766722008198899E+00" Lattice="3.267740222473193E+00  0.000000000000000E+00  0.000000000000000E+00  1.449761112011908E-02  3.260120651884487E+00  0.000000000000000E+00  1.638992936632398E+00  1.577978121918252E+00  1.510152566677892E+00" Properties=species:S:1:pos:R:3:force:R:3:Z:I:1]]>
    <![CDATA[W          0.000000000000000E+00 0.000000000000000E+00 0.000000000000000E+00 0.000000000000000E+00 0.000000000000000E+00 0.000000000000000E+00      74]]>
    <![CDATA[1]]>
    <![CDATA[config_type=slice_sample energy=-1.112714742324192E+01 virial="-6.555198752998936E-01 -6.592249329351238E-02  6.926471680376684E-03 -6.592249329351238E-02 -4.759048693509903E-01  3.200408838546463E-01  6.926471680376684E-03  3.200408838546463E-01  1.875308137653117E+00" Lattice="3.267740222473193E+00  0.000000000000000E+00  0.000000000000000E+00  1.449761112011908E-02  3.244369370667506E+00  0.000000000000000E+00  1.638992936632398E+00  1.577978121918252E+00  1.510152566677892E+00" Properties=species:S:1:pos:R:3:force:R:3:Z:I:1]]>
    <![CDATA[W          0.000000000000000E+00 0.000000000000000E+00 0.000000000000000E+00 0.000000000000000E+00 0.000000000000000E+00 0.000000000000000E+00      74]]>
    <![CDATA[1]]>
    <![CDATA[config_type=slice_sample energy=-1.117378902275095E+01 virial="-1.260935343623599E+00 -0.000000000000000E+00  3.417701096190653E-01 -0.000000000000000E+00 -4.848669156807505E-01 -0.000000000000000E+00  3.417701096190653E-01 -0.000000000000000E+00 -4.922866029077630E-01" Lattice="3.263108662115347E+00  0.000000000000000E+00  0.000000000000000E+00  0.000000000000000E+00  3.180500495732849E+00  0.000000000000000E+00  1.590250242866424E+00  1.590250242866424E+00  1.590250242866424E+00" Properties=species:S:1:pos:R:3:force:R:3:Z:I:1]]>
    <![CDATA[W          0.000000000000000E+00 0.000000000000000E+00 0.000000000000000E+00 0.000000000000000E+00 0.000000000000000E+00 0.000000000000000E+00      74]]>
    <![CDATA[1]]>
    <![CDATA[config_type=slice_sample energy=-1.117421416086290E+01 virial="-1.261867608968958E+00  1.931664993628139E-02  3.243843333703152E-01  1.931664993628139E-02 -4.865293352241081E-01  2.978634703605525E-03  3.243843333703152E-01  2.978634703605525E-03 -4.932229764376210E-01" Lattice="3.263108662115347E+00  0.000000000000000E+00  0.000000000000000E+00 -4.194180324052104E-03  3.180500495732849E+00  0.000000000000000E+00  1.590250242866424E+00  1.590250242866424E+00  1.590250242866424E+00" Properties=species:S:1:pos:R:3:force:R:3:Z:I:1]]>
    <![CDATA[W          0.000000000000000E+00 0.000000000000000E+00 0.000000000000000E+00 0.000000000000000E+00 0.000000000000000E+00 0.000000000000000E+00      74]]>
    <![CDATA[1]]>
    <![CDATA[config_type=slice_sample energy=-1.117335771863782E+01 virial="-9.292776767510832E-01  2.699834308585184E-03  3.455321587508328E-01  2.699834308585184E-03  3.789379104887395E-01 -2.232642192407689E-01  3.455321587508328E-01 -2.232642192407689E-01 -1.741890428953907E-01" Lattice="3.263108662115347E+00  0.000000000000000E+00  0.000000000000000E+00 -4.194180324052104E-03  3.127992841675986E+00  0.000000000000000E+00  1.590250242866424E+00  1.590250242866424E+00  1.590250242866424E+00" Properties=species:S:1:pos:R:3:force:R:3:Z:I:1]]>
    <![CDATA[W          0.000000000000000E+00 0.000000000000000E+00 0.000000000000000E+00 0.000000000000000E+00 0.000000000000000E+00 0.000000000000000E+00      74]]>
    <![CDATA[1]]>
    <![CDATA[config_type=slice_sample energy=-1.117756663099590E+01 virial="-9.394743558159568E-01  1.876248284207181E-02 -2.832599408452319E-02  1.876248284207181E-02  3.640644390896421E-01 -2.216724296844695E-01 -2.832599408452319E-02 -2.216724296844695E-01 -1.821709295997505E-01" Lattice="3.263108662115347E+00  0.000000000000000E+00  0.000000000000000E+00 -4.194180324052104E-03  3.127992841675986E+00  0.000000000000000E+00  1.632395386122656E+00  1.590250242866424E+00  1.590250242866424E+00" Properties=species:S:1:pos:R:3:force:R:3:Z:I:1]]>
    <![CDATA[W          0.000000000000000E+00 0.000000000000000E+00 0.000000000000000E+00 0.000000000000000E+00 0.000000000000000E+00 0.000000000000000E+00      74]]>
    <![CDATA[1]]>
    <![CDATA[config_type=slice_sample energy=-1.117736433641585E+01 virial="-9.385336956247566E-01  1.884979726157212E-02 -2.846121033667600E-02  1.884979726157212E-02  3.640239240334950E-01 -2.336016894577707E-01 -2.846121033667600E-02 -2.336016894577707E-01 -1.815291676267123E-01" Lattice="3.263108662115347E+00  0.000000000000000E+00  0.000000000000000E+00 -4.194180324052104E-03  3.127992841675986E+00  0.000000000000000E+00  1.632395386122656E+00  1.591663362975605E+00  1.590250242866424E+00" Properties=species:S:1:pos:R:3:force:R:3:Z:I:1]]>
    <![CDATA[W          0.000000000000000E+00 0.000000000000000E+00 0.000000000000000E+00 0.000000000000000E+00 0.000000000000000E+00 0.000000000000000E+00      74]]>
    <![CDATA[1]]>
    <![CDATA[config_type=slice_sample energy=-1.117546607553982E+01 virial="-1.053888094835834E+00  1.862388962369261E-02 -2.806907977166105E-02  1.862388962369261E-02  2.525677246056627E-01 -2.304575333749914E-01 -2.806907977166105E-02 -2.304575333749914E-01 -4.743212472309852E-01" Lattice="3.263108662115347E+00  0.000000000000000E+00  0.000000000000000E+00 -4.194180324052104E-03  3.127992841675986E+00  0.000000000000000E+00  1.632395386122656E+00  1.591663362975605E+00  1.599505283581490E+00" Properties=species:S:1:pos:R:3:force:R:3:Z:I:1]]>
    <![CDATA[W          0.000000000000000E+00 0.000000000000000E+00 0.000000000000000E+00 0.000000000000000E+00 0.000000000000000E+00 0.000000000000000E+00      74]]>
    <![CDATA[1]]>
    <![CDATA[config_type=slice_sample energy=-1.118284462456199E+01 virial="-5.371742863899711E-01  2.738711997527709E-02 -1.874984312191203E-01  2.738711997527709E-02  4.672948995776678E-01 -2.437290629969162E-01 -1.874984312191203E-01 -2.437290629969162E-01 -2.581189624076117E-01" Lattice="3.228255659422524E+00  0.000000000000000E+00  0.000000000000000E+00 -4.194180324052104E-03  3.127992841675986E+00  0.000000000000000E+00  1.632395386122656E+00  1.591663362975605E+00  1.599505283581490E+00" Properties=species:S:1:pos:R:3:force:R:3:Z:I:1]]>
    <![CDATA[W          0.000000000000000E+00 0.000000000000000E+00 0.000000000000000E+00 0.000000000000000E+00 0.000000000000000E+00 0.000000000000000E+00      74]]>
    <![CDATA[1]]>
    <![CDATA[config_type=slice_sample energy=-1.114982015488499E+01 virial="-4.867371097829142E-01  6.089552868093069E-01 -8.136710940435969E-01  6.089552868093069E-01  5.564878984495533E-01 -3.768543235390592E-01 -8.136710940435969E-01 -3.768543235390592E-01 -1.478366339289625E-01" Lattice="3.228255659422524E+00  0.000000000000000E+00  0.000000000000000E+00 -1.317264901774943E-01  3.127992841675986E+00  0.000000000000000E+00  1.632395386122656E+00  1.591663362975605E+00  1.599505283581490E+00" Properties=species:S:1:pos:R:3:force:R:3:Z:I:1]]>
    <![CDATA[W          0.000000000000000E+00 0.000000000000000E+00 0.000000000000000E+00 0.000000000000000E+00 0.000000000000000E+00 0.000000000000000E+00      74]]>
    <![CDATA[1]]>
    <![CDATA[config_type=slice_sample energy=-1.115459173728595E+01 virial="-9.029164912397826E-01  5.511328038906642E-01 -7.076318995485518E-01  5.511328038906642E-01 -5.221656924324364E-01 -6.754936698942592E-02 -7.076318995485518E-01 -6.754936698942592E-02 -5.781094962521891E-01" Lattice="3.228255659422524E+00  0.000000000000000E+00  0.000000000000000E+00 -1.317264901774943E-01  3.193967236773320E+00  0.000000000000000E+00  1.632395386122656E+00  1.591663362975605E+00  1.599505283581490E+00" Properties=species:S:1:pos:R:3:force:R:3:Z:I:1]]>
    <![CDATA[W          0.000000000000000E+00 0.000000000000000E+00 0.000000000000000E+00 0.000000000000000E+00 0.000000000000000E+00 0.000000000000000E+00      74]]>
    <![CDATA[1]]>
    <![CDATA[config_type=slice_sample energy=-1.117283531992689E+01 virial="-9.303690337085909E-01  5.576843065084890E-01  3.333937865644198E-02  5.576843065084890E-01 -5.916328583168809E-01  5.060803803154607E-02  3.333937865644198E-02  5.060803803154607E-02 -6.233300047609952E-01" Lattice="3.228255659422524E+00  0.000000000000000E+00  0.000000000000000E+00 -1.317264901774943E-01  3.193967236773320E+00  0.000000000000000E+00  1.545451599405177E+00  1.591663362975605E+00  1.599505283581490E+00" Properties=species:S:1:pos:R:3:force:R:3:Z:I:1]]>
    <![CDATA[W          0.000000000000000E+00 0.000000000000000E+00 0.000000000000000E+00 0.000000000000000E+00 0.000000000000000E+00 0.000000000000000E+00      74]]>
    <![CDATA[1]]>
    <![CDATA[config_type=slice_sample energy=-1.117264806253388E+01 virial="-9.295545757802713E-01  5.579041102165778E-01  3.946229341594719E-02  5.579041102165778E-01 -5.914226718747777E-01  8.753000402090527E-02  3.946229341594719E-02  8.753000402090527E-02 -6.228349862695718E-01" Lattice="3.228255659422524E+00  0.000000000000000E+00  0.000000000000000E+00 -1.317264901774943E-01  3.193967236773320E+00  0.000000000000000E+00  1.545451599405177E+00  1.587326472640527E+00  1.599505283581490E+00" Properties=species:S:1:pos:R:3:force:R:3:Z:I:1]]>
    <![CDATA[W          0.000000000000000E+00 0.000000000000000E+00 0.000000000000000E+00 0.000000000000000E+00 0.000000000000000E+00 0.000000000000000E+00      74]]>
    </XYZ_data>
</GAP_params>

</GAP_2013_5_30_60_14_20_28_943>
